FANN_FLO_2.1
num_layers=3
learning_rate=0.700000
connection_rate=1.000000
network_type=0
learning_momentum=0.000000
training_algorithm=2
train_error_function=1
train_stop_function=0
cascade_output_change_fraction=0.010000
quickprop_decay=-0.000100
quickprop_mu=1.750000
rprop_increase_factor=1.200000
rprop_decrease_factor=0.500000
rprop_delta_min=0.000000
rprop_delta_max=50.000000
rprop_delta_zero=0.100000
cascade_output_stagnation_epochs=12
cascade_candidate_change_fraction=0.010000
cascade_candidate_stagnation_epochs=12
cascade_max_out_epochs=150
cascade_min_out_epochs=50
cascade_max_cand_epochs=150
cascade_min_cand_epochs=50
cascade_num_candidate_groups=2
bit_fail_limit=3.49999994039535522461e-01
cascade_candidate_limit=1.00000000000000000000e+03
cascade_weight_multiplier=4.00000005960464477539e-01
cascade_activation_functions_count=10
cascade_activation_functions=3 5 7 8 10 11 14 15 16 17 
cascade_activation_steepnesses_count=4
cascade_activation_steepnesses=2.50000000000000000000e-01 5.00000000000000000000e-01 7.50000000000000000000e-01 1.00000000000000000000e+00 
layer_sizes=5 3 5 
scale_included=0
neurons (num_inputs, activation_function, activation_steepness)=(0, 0, 0.00000000000000000000e+00) (0, 0, 0.00000000000000000000e+00) (0, 0, 0.00000000000000000000e+00) (0, 0, 0.00000000000000000000e+00) (0, 0, 0.00000000000000000000e+00) (5, 5, 5.00000000000000000000e-01) (5, 5, 5.00000000000000000000e-01) (0, 5, 0.00000000000000000000e+00) (3, 5, 5.00000000000000000000e-01) (3, 5, 5.00000000000000000000e-01) (3, 5, 5.00000000000000000000e-01) (3, 5, 5.00000000000000000000e-01) (0, 5, 0.00000000000000000000e+00) 
connections (connected_to_neuron, weight)=(0, -2.01557837426662445068e-02) (1, -5.23570656776428222656e-01) (2, 1.12808632850646972656e+00) (3, 1.94760942459106445312e+00) (4, -1.68825015425682067871e-01) (0, -1.60688549280166625977e-01) (1, -8.90792012214660644531e-02) (2, 1.30193269252777099609e+00) (3, 2.65445733070373535156e+00) (4, -8.54583382606506347656e-02) (5, 4.08991903066635131836e-01) (6, 1.62371873855590820312e+00) (7, 1.20002579689025878906e+00) (5, -3.27037125825881958008e-01) (6, 4.33431833982467651367e-01) (7, 7.24962174892425537109e-01) (5, 7.84642457962036132812e-01) (6, 1.44953727722167968750e+00) (7, 3.89389336109161376953e-01) (5, 6.92276597023010253906e-01) (6, 2.48277336359024047852e-01) (7, 1.05902880430221557617e-01) 
